#ifndef _WEIGHT2_
#define _WEIGHT2_

#include "layer2.h"

static DataType weight[N1][N2] = {{-0.52226462,0.,0.6781217,-0.00000355,-3.34575987,-2.63410151
		,-0.56214086,-0.29954829,-0.44313696,0.47182574,-2.55556621,-0.61910492
		,0.28948754,-1.66301143,0.05463549}
		,{-1.35617003,0.,-0.13047475,-0.00000019,-0.55531354,-0.02436261
		,0.79179276,0.56328836,0.472343,0.35249166,0.0662596,0.70260033
		,-0.1171422,0.35655194,-0.31994316}
		,{-0.,0.,-0.,-0.,0.,-0.
		,0.,0.00744049,-0.,-0.00116339,-0.00767673,-0.00210631
		,0.00008155,-0.,-0.00045901}
		,{-0.14409386,-0.,-0.55020875,-0.00002957,-0.12634641,-0.10501432
		,0.49590176,-0.39435635,-2.10727493,0.06095562,-2.22592622,0.29701847
		,0.58492416,-0.37321447,-1.10136757}
		,{0.00148147,-0.,0.00079124,-0.,-0.,0.0000706
		,0.01008462,0.00003401,0.00000281,-0.00255618,0.,0.00028733
		,0.00005082,-0.00000393,0.01212194}
		,{-0.49142883,0.,0.53913439,0.,1.35834106,-2.25755903
		,-0.19057211,0.52628639,0.24428974,-0.08894126,0.11358447,0.47859967
		,-0.45304712,-0.13450543,0.25854162}
		,{0.84016988,-0.,0.26878426,-0.,2.30704876,2.35210359
		,0.68586587,1.27169262,-2.61534162,1.12657571,-0.00000064,-1.40644019
		,-1.65083473,0.18292644,0.87129627}
		,{-0.,0.,-0.,0.,-0.,0.
		,-0.,-0.,0.,-0.,-0.,0.
		,-0.,-0.,0.}
		,{-0.42227711,-0.,-0.98676207,-0.00532166,-1.57680142,-0.32286996
		,-0.45626367,0.56768889,0.23998894,-0.23039871,-2.74249572,1.06015953
		,0.2123011,-1.38215218,0.32295283}
		,{-0.,0.,-0.,0.,-0.,-0.
		,-0.,0.,0.,-0.,0.,-0.
		,0.,0.,0.}
		,{0.,0.,-0.,-0.,-0.,-0.
		,-0.,0.,-0.,-0.,-0.,-0.
		,-0.,0.,-0.}
		,{0.06118047,0.,0.36041668,-0.00011485,-1.7380169,-0.05765483
		,-0.34269817,0.82658293,-0.45832032,0.59256784,-3.48514268,0.67696005
		,0.87850106,-0.6665123,-1.17529}
		,{1.5902352,-0.,0.57246546,0.,0.40491369,2.9458587
		,0.76478304,-0.27574029,-0.52410481,1.49136359,-1.0541315,-3.20362658
		,-1.03480856,1.73235517,0.29211395}
		,{0.,-0.,-0.,0.,-0.,0.
		,-0.,0.,-0.,0.,0.,0.
		,0.,-0.,-0.}
		,{0.,0.,0.,0.,0.,0.
		,0.,-0.,-0.,0.,0.,-0.
		,-0.,-0.,0.}
		,{1.33366131,0.,0.6665606,-0.,-0.99580091,-1.04910709
		,0.57355812,0.52855087,-0.65369559,0.07241961,1.16094723,0.97554127
		,-0.87923991,0.77855288,-0.48454258}
		,{-1.04288068,0.,0.59359804,-0.00006319,-1.47820207,-1.69801026
		,-0.45628654,0.41057017,-0.11490126,-0.23899927,0.50241859,0.84128554
		,-0.56098253,-0.43156302,0.7797889}
		,{-2.65163946,-0.,-0.54246063,-0.,-0.05418108,-1.27549239
		,-0.34502395,-1.50904856,-0.47794505,2.52050112,-0.55943324,-0.71769411
		,-0.30869449,-0.0000246,0.06811289}
		,{-1.351624,-0.,0.82438975,-0.,-0.,-0.49584948
		,-0.53482567,-0.93017984,-0.05225224,1.03110408,-0.34480057,-0.69029975
		,0.01377138,-0.00000008,0.24553635}
		,{-2.26766615,0.,0.79749769,-0.00000003,-0.33320816,-0.23032167
		,-0.77085084,-0.60235645,0.72351943,0.06163723,0.01593527,0.22985049
		,0.11019538,-2.04534273,-0.15184985}
		,{1.92732226,-0.,0.21833065,-0.,-0.73738439,-0.87499983
		,-0.43780587,1.06610114,2.50658377,-1.62329427,-0.32672239,-1.20490655
		,-0.41229434,0.47497462,-2.30382103}
		,{0.050278,-0.,-0.30848436,-0.,-0.28087631,-1.38098118
		,-1.25245552,-0.07390511,0.24817652,0.3841167,-2.04999942,0.20629533
		,-0.88411327,-1.27023092,1.20862474}
		,{0.30508535,0.,-1.29761557,-0.00029939,2.23034052,-2.20677892
		,-0.41426883,1.03309101,-2.16133644,1.04751173,-0.41694662,-0.6410365
		,0.20544122,0.31391735,1.80458495}
		,{0.32085616,-0.,-0.87666326,-0.,-1.83658739,0.70210717
		,-0.2228207,0.47169856,1.42005904,0.31141807,-0.7450824,-0.23639346
		,1.39564852,-0.00803602,-0.52441144}
		,{-0.71317,-0.,1.15235983,-0.00001376,-1.84852484,0.00137595
		,-0.78987599,-0.73134291,0.06946657,-0.42885817,0.71977604,-1.2030776
		,0.51418268,-1.97936799,-1.40061662}
		,{-4.25807827,-0.,-1.38069952,0.,0.19722828,-4.02436168
		,-0.8178274,-1.13749042,-0.0784256,2.4703979,2.45949609,0.20324135
		,1.76443607,-1.2375632,-0.58955182}
		,{2.27526443,-0.,-0.88318537,-0.,-3.01388337,0.35741307
		,0.79757858,1.73713807,-0.22769691,0.49955145,-0.,-2.6755897
		,1.29393023,-0.00583989,0.73205733}
		,{0.56920815,0.,0.35156765,-0.0003206,1.14986863,0.02953215
		,-1.30359167,0.57084379,-0.48219269,-0.10769063,0.95950844,0.05935687
		,1.05578418,-2.40057507,-0.34262935}
		,{-0.44564928,0.,-0.43325707,-0.000007,0.39758295,0.2949444
		,-0.15028148,0.05992315,0.06907226,-0.05255012,-1.03015555,-0.06183534
		,0.65402327,-1.47557829,-0.32170129}
		,{0.,0.,0.,0.,0.,-0.
		,0.,-0.,0.,0.,0.,0.
		,-0.,0.,-0.}};
#endif
