#ifndef _WEIGHT1_
#define _WEIGHT1_

#include "layer1.h"

static DataType weight[N1][N2] = {{1.68179475,-3.01745105,0.,0.43982542,-0.00000045
		,-3.72387535,0.71707077,-0.,-3.22566101,0.
		,-0.,-1.95952683,0.45666811,-0.,0.
		,-2.49729076,-2.08887544,-1.33746823,0.10470503,-0.93314081
		,0.34146778,-1.56893376,2.39189568,-1.95647496,1.3358187
		,0.40384733,2.92905338,2.39419476,-0.22611552,-0.}
		,{-1.87385285,1.62982565,-0.,3.03771812,-0.
		,-1.24444639,1.7421614,-0.,1.17846203,0.
		,-0.,-1.2122183,2.64740366,-0.,0.
		,-1.70027412,-4.87887449,-1.13257212,-2.23957535,0.43765936
		,1.22394371,-3.73554631,-2.96567319,2.74794903,3.51723419
		,-1.28833165,-0.03896663,1.85603209,3.4531424,-0.}
		,{-0.12722242,-3.11139448,0.,-6.29410134,-0.
		,-1.03469365,-0.787224,-0.,-5.24351482,0.
		,-0.,-3.38422757,-3.45903607,-0.,-0.
		,1.1444779,-0.88739437,-2.21674152,0.01890397,3.18799615
		,3.91928738,-1.07587252,-1.06145129,-2.07644916,4.96453682
		,1.17444359,-3.47082448,2.89423765,-2.29908056,-0.}
		,{-0.31767363,0.41623254,-0.,0.76807384,-0.16384582
		,-0.0711227,0.20386472,-0.,0.25015504,0.
		,0.,0.17193519,0.31219463,-0.00204389,0.
		,0.47174579,0.13801146,-1.57323209,-1.16742824,1.1731344
		,0.26055334,0.08663912,0.98865838,-0.6185405,0.40251195
		,-0.1608875,-0.16492382,0.69676728,0.18799517,-0.}
		,{-0.85064267,0.52006604,-0.,0.22490403,-0.09331133
		,0.64954348,0.21939738,0.,0.01943589,-0.
		,-0.,-0.02567227,0.70800651,-0.00048169,0.
		,0.80566008,0.53041332,-2.03455944,-1.2248683,0.11175429
		,0.65525939,0.10139134,-0.71111842,0.17059878,0.18136364
		,-0.29502761,-0.10701678,0.24765531,0.26259142,-0.}
		,{0.18250417,0.0056318,-0.,-0.06507966,-0.01240407
		,-0.53132524,0.93837633,-0.,0.38448533,-0.
		,0.,0.19825486,0.6949996,-0.00005346,-0.
		,-1.0631151,0.40710182,-2.12860624,-1.19774481,0.86540274
		,0.18467415,-0.13491571,0.47875346,-0.44887473,0.36482627
		,0.56416167,0.7812971,-0.18523676,0.34861666,0.}
		,{-6.90657775,0.67176873,0.,-0.59896568,-0.05893038
		,1.57473126,3.5347598,0.,0.13401415,-0.
		,0.,-3.76350754,4.00542724,-0.,0.
		,0.41895473,0.31331773,-7.19533528,-1.88762175,-1.59675628
		,-2.2121609,-0.26632432,2.23401452,4.92827971,-0.62239225
		,6.44102064,0.86829903,-1.67470924,-0.52640816,-0.}
		,{-2.68840689,0.26303507,0.,-1.24795349,-0.21981996
		,0.61104373,-1.21465653,-0.,3.57845584,0.
		,0.,2.3398711,-1.08767956,-0.01315055,-0.
		,-0.07251799,-0.3870767,-1.6880483,-5.47536417,-2.23543615
		,1.61152138,4.56399931,2.49290511,0.15017971,-5.80058839
		,-0.12418397,0.72455963,0.41371281,-0.09560835,-0.}
		,{-0.97210905,3.92157614,0.,3.46034452,-0.00000017
		,1.36894393,4.95819747,-0.,0.7400089,-0.
		,-0.,-2.3768201,0.1685555,-0.,-0.
		,3.25216458,-0.43352892,0.73446035,0.71385549,2.81085513
		,-5.52525788,-3.66991813,-4.91809921,-2.89275648,1.66093114
		,-3.58012842,-4.87802874,2.4260006,3.58856081,-0.}
		,{0.42342798,0.04073871,-0.,0.98341372,-0.13758116
		,-1.56686949,-0.47685928,0.,0.57284918,-0.
		,0.,2.74381077,0.96504052,-0.00987084,-0.
		,0.67203869,2.48069775,-0.15373348,-1.47828487,-2.63577963
		,-1.23502398,-1.36660262,-0.60120409,-2.94008564,0.01088397
		,2.28029445,-1.96558367,2.74555852,-0.47074469,-0.}
		,{-1.95455604,2.96732345,-0.,0.99445901,-0.08905714
		,-0.35239874,-1.21622768,0.,-0.46497293,-0.
		,0.,-0.06302303,1.75361635,-0.00982519,-0.
		,2.82509349,0.4086669,1.50402383,-1.88890892,0.24469449
		,-1.05451695,-0.85228736,-3.03368734,-2.42643207,-1.65495088
		,-0.73288729,-2.52883279,-1.54906703,-1.05273478,0.}
		,{2.21808826,-0.1450043,0.,-0.43044747,-0.0008468
		,1.03570933,1.69464854,0.,-0.34841428,-0.
		,0.,0.89745322,0.57326831,-0.,0.
		,-2.24599419,0.98450143,-0.53666195,0.44364578,2.2087841
		,-0.83669025,1.18034347,0.80372934,0.37147406,-0.59095304
		,-0.08938214,-0.85921103,-0.63115235,1.21041828,0.}
		,{4.3369148,-4.23007899,-0.,1.49092495,-0.
		,-5.05980015,-0.00742767,-0.,-4.90335616,-0.
		,-0.,-3.1338821,-0.27879981,-0.,0.
		,-3.17414895,-1.05196283,1.05747,1.81507348,-0.16200541
		,-2.50603039,-1.6902548,3.29877719,-3.57320487,2.58430356
		,1.91155495,2.48836091,2.15060926,-1.27232654,-0.}
		,{2.45930957,-0.51444029,0.,5.7840876,-0.
		,-2.26002725,0.69665736,0.,-2.22423573,0.
		,0.,-2.95184729,3.67127052,0.,0.
		,-3.0365949,-5.19813303,3.49363551,0.76815699,1.70823002
		,-1.34586696,-4.50544409,-5.24451476,1.08910311,5.10019309
		,-1.08779552,-2.19712661,0.15058222,1.85965208,0.}
		,{-1.48039722,-5.9557658,0.,-8.35799964,-0.
		,-2.33926363,-1.35548119,-0.,-8.80883695,-0.
		,-0.,-4.12530778,-2.88915844,-0.,0.
		,2.17913813,0.5704315,-0.9667677,0.16892613,1.05061498
		,6.55781149,-0.94841412,-0.93272303,-3.61072985,4.00683697
		,2.37147129,-5.33255868,3.22553841,-5.91997101,-0.}
		,{0.27599484,0.15702544,-0.00002846,0.9761339,-0.09012793
		,-0.29131754,-1.65183854,0.,0.33568429,-0.
		,-0.,0.4791389,-1.56834502,-0.00563352,0.
		,0.51025633,0.44471502,0.86325899,-0.43296582,-0.74041535
		,0.09135513,0.05060474,0.6519884,-0.1616496,-0.23504687
		,0.28137881,-1.62183204,0.55501006,0.03131287,-0.}
		,{0.0952577,0.45025429,-0.00002857,-0.15600479,-0.1111092
		,-0.16237953,-1.25750223,-0.,-0.02020652,-0.00202684
		,0.,-0.08442397,-0.2919477,-0.00163552,-0.
		,0.56802738,0.53808167,0.5490385,0.6095777,-0.05538592
		,-0.17986273,-0.36696314,-0.83070613,-0.24578859,-0.1102624
		,0.2854542,-0.59019439,-0.13887526,-0.16177105,0.}
		,{0.42295197,-0.10117862,-0.00004612,0.23144388,-0.08250789
		,-0.68939497,-0.28529324,0.,0.12069095,-0.00000001
		,0.,-0.13748955,-0.13437272,-0.00681587,0.
		,-1.61342274,-0.46113758,0.5030297,0.10428575,0.35057683
		,-0.23886523,0.34422029,0.04075057,0.60314768,-0.12923552
		,0.43972669,0.70032746,-0.60842814,0.16748932,0.}
		,{4.57726511,-1.1437831,-0.,3.95679334,-0.
		,-4.406244,-0.29167581,0.,-6.47966815,0.
		,0.,-2.26583244,-4.22678148,0.,0.
		,-0.17686814,-0.41046384,-1.16788044,1.31685819,0.9801217
		,-0.26419076,-7.74888272,-4.05222104,-4.69255056,6.70621934
		,0.81526361,3.54539104,5.2539822,0.05622177,-0.}
		,{-6.13216279,4.30250946,0.,3.01136543,-0.
		,-4.10143076,2.44215005,-0.,2.1798469,0.
		,-0.,-0.38353777,6.86064989,0.,0.
		,-0.77078467,-10.13034753,0.73985324,-2.20718583,-0.5558942
		,6.36590718,-7.83796476,-10.36542196,3.23802437,5.55043441
		,-1.99664342,-0.18865988,2.76308981,6.65328331,-0.}
		,{0.70561924,-7.0925249,-0.,-11.30010339,0.
		,-0.83742305,-0.96081001,0.,-11.02539235,0.
		,-0.,-5.17397759,-0.69088433,0.,-0.
		,2.79061836,4.54528246,0.10048769,1.94543063,4.92817946
		,3.769185,2.46845368,-2.89792464,-4.54313713,3.24531442
		,2.37514575,-7.16462054,-3.48958966,-9.09207032,-0.}
		,{0.0750477,0.52265599,-0.00000188,-0.25873543,-0.01710113
		,0.1911105,-0.36362009,0.,0.3816215,-0.
		,-0.,-0.8362532,-1.73537515,-0.00000037,-0.
		,-0.10572676,0.38454372,0.05253777,-0.26181348,0.27646063
		,0.02507044,0.35750378,0.59176254,-0.08559796,0.25139853
		,-2.44956486,-0.57755392,-0.29895748,-0.15149808,0.}
		,{0.4104953,-0.30741039,-0.0000018,-0.6317836,0.01113202
		,-0.25550778,0.6030598,-0.,0.00902189,0.00012435
		,0.,0.09280278,-0.32666787,-0.00000091,0.
		,-0.15548863,0.08893362,0.08760216,0.51119061,-0.16660083
		,-0.950928,0.2535786,0.55003362,-0.07847525,0.14483977
		,0.43888306,-0.74834161,-0.18580142,-0.18713801,-0.}
		,{0.26220579,-0.27663441,-0.00002703,-0.3016187,0.01382923
		,-0.50879453,0.12286213,0.,0.13971695,-0.
		,0.,-0.1453285,0.31430307,-0.00020749,-0.
		,-1.20347861,-0.06031995,0.07189564,0.07961397,0.02493062
		,-0.59394522,-0.00415163,-0.04820037,0.30662556,0.07123032
		,-3.34478931,0.10826317,0.25127505,0.10691846,-0.}
		,{4.45937758,-3.10980824,-0.,2.18156137,0.
		,-0.09550109,-1.01589206,-0.,-5.54171968,-0.
		,-0.,-0.49989893,-3.68282139,-0.,0.
		,0.04224356,3.68436563,0.26338713,0.51975393,-3.19340575
		,0.91843526,-0.64744105,2.95310757,-7.2754187,0.61246586
		,0.5995342,1.06036698,1.9520175,-2.38551377,-0.}
		,{-1.2923671,3.2726757,-0.,4.51898904,-0.
		,-0.39832162,0.81219179,-0.,-0.20983218,-0.
		,-0.,-0.6807143,4.09706823,0.,0.
		,-0.18541997,-5.78021375,2.01376953,-0.56656837,2.69998928
		,-0.14725467,-6.54221637,-9.22463922,1.35204878,6.21994185
		,-0.7512944,-1.82609488,-1.16251662,3.67201166,0.}
		,{0.70998405,-3.43779881,0.,-5.32040395,-0.
		,-0.01598798,-0.39458424,-0.,-9.28704909,0.
		,0.,-0.49894747,-0.93775655,0.,-0.
		,1.54868596,2.84845078,-0.0744086,0.50709093,5.38902795
		,-2.03037805,1.09962634,-2.931801,-2.11098931,4.5074202
		,1.02310695,-4.00190816,-2.21131748,-4.64492247,0.}
		,{0.74336006,-0.5810992,0.,1.39597977,-0.00000128
		,-1.77682693,-0.98487539,0.,-0.03828491,0.
		,0.,0.66554343,-1.95172826,-0.,-0.
		,0.1533474,-0.99619417,-0.13865567,-0.82512778,-1.79711344
		,1.73069377,-1.49791783,0.01303823,-4.40947768,0.87643896
		,-0.64201493,0.99884486,2.245801,1.08150894,-0.}
		,{-0.94876315,0.68475046,-0.,0.19022657,-0.00018559
		,1.28606697,-1.72484229,0.,0.77926714,-0.
		,0.,0.68882315,-1.43312641,-0.,0.
		,0.59703712,0.31211739,-1.48789683,-0.11465884,1.51164438
		,-0.61245335,-0.44033193,-2.16523333,1.11921318,0.74921177
		,0.20398514,-3.18121994,-1.76399802,0.18366623,-0.}
		,{-1.27343299,0.06535274,-0.,-0.79176488,-0.00001165
		,0.31061402,0.27135088,-0.,0.45982128,0.
		,0.,-0.15010887,-0.02479666,-0.,-0.
		,-0.5089389,0.09436107,0.47935093,-0.37468047,-0.22374849
		,3.16632961,0.26866341,-0.55956685,-0.29360777,-0.59259635
		,-2.09025876,1.52908939,-1.37167755,-0.48947885,0.}};

#endif
